digraph Tree {
node [shape=box, fontname="helvetica"] ;
edge [fontname="helvetica"] ;
0 [label="女性 <= 0.5\ngini = 0.47\nsamples = 668\nvalue = [416.0, 252.0]"] ;
1 [label="Age <= 13.0\ngini = 0.294\nsamples = 436\nvalue = [358, 78]"] ;
0 -> 1 [labeldistance=2.5, labelangle=45, headlabel="True"] ;
2 [label="Pclass <= 2.5\ngini = 0.464\nsamples = 30\nvalue = [11, 19]"] ;
1 -> 2 ;
3 [label="gini = 0.0\nsamples = 11\nvalue = [0, 11]"] ;
2 -> 3 ;
4 [label="Age <= 0.71\ngini = 0.488\nsamples = 19\nvalue = [11, 8]"] ;
2 -> 4 ;
5 [label="gini = 0.0\nsamples = 1\nvalue = [0, 1]"] ;
4 -> 5 ;
6 [label="Age <= 11.5\ngini = 0.475\nsamples = 18\nvalue = [11, 7]"] ;
4 -> 6 ;
7 [label="Age <= 3.5\ngini = 0.457\nsamples = 17\nvalue = [11, 6]"] ;
6 -> 7 ;
8 [label="Age <= 2.5\ngini = 0.5\nsamples = 6\nvalue = [3, 3]"] ;
7 -> 8 ;
9 [label="Age <= 1.5\ngini = 0.375\nsamples = 4\nvalue = [3, 1]"] ;
8 -> 9 ;
10 [label="gini = 0.5\nsamples = 2\nvalue = [1, 1]"] ;
9 -> 10 ;
11 [label="gini = 0.0\nsamples = 2\nvalue = [2, 0]"] ;
9 -> 11 ;
12 [label="gini = 0.0\nsamples = 2\nvalue = [0, 2]"] ;
8 -> 12 ;
13 [label="Age <= 5.0\ngini = 0.397\nsamples = 11\nvalue = [8, 3]"] ;
7 -> 13 ;
14 [label="gini = 0.0\nsamples = 3\nvalue = [3, 0]"] ;
13 -> 14 ;
15 [label="Age <= 6.5\ngini = 0.469\nsamples = 8\nvalue = [5, 3]"] ;
13 -> 15 ;
16 [label="gini = 0.0\nsamples = 1\nvalue = [0, 1]"] ;
15 -> 16 ;
17 [label="Age <= 8.5\ngini = 0.408\nsamples = 7\nvalue = [5, 2]"] ;
15 -> 17 ;
18 [label="gini = 0.0\nsamples = 2\nvalue = [2, 0]"] ;
17 -> 18 ;
19 [label="Age <= 10.0\ngini = 0.48\nsamples = 5\nvalue = [3, 2]"] ;
17 -> 19 ;
20 [label="gini = 0.5\nsamples = 4\nvalue = [2, 2]"] ;
19 -> 20 ;
21 [label="gini = 0.0\nsamples = 1\nvalue = [1, 0]"] ;
19 -> 21 ;
22 [label="gini = 0.0\nsamples = 1\nvalue = [0, 1]"] ;
6 -> 22 ;
23 [label="Pclass <= 1.5\ngini = 0.248\nsamples = 406\nvalue = [347.0, 59.0]"] ;
1 -> 23 ;
24 [label="Age <= 51.5\ngini = 0.42\nsamples = 90\nvalue = [63.0, 27.0]"] ;
23 -> 24 ;
25 [label="Age <= 47.5\ngini = 0.456\nsamples = 71\nvalue = [46, 25]"] ;
24 -> 25 ;
26 [label="Age <= 24.5\ngini = 0.414\nsamples = 65\nvalue = [46, 19]"] ;
25 -> 26 ;
27 [label="gini = 0.0\nsamples = 7\nvalue = [7, 0]"] ;
26 -> 27 ;
28 [label="Age <= 27.5\ngini = 0.441\nsamples = 58\nvalue = [39, 19]"] ;
26 -> 28 ;
29 [label="Age <= 26.0\ngini = 0.278\nsamples = 6\nvalue = [1, 5]"] ;
28 -> 29 ;
30 [label="gini = 0.0\nsamples = 2\nvalue = [0, 2]"] ;
29 -> 30 ;
31 [label="gini = 0.375\nsamples = 4\nvalue = [1, 3]"] ;
29 -> 31 ;
32 [label="Age <= 36.5\ngini = 0.393\nsamples = 52\nvalue = [38, 14]"] ;
28 -> 32 ;
33 [label="Age <= 34.0\ngini = 0.451\nsamples = 32\nvalue = [21, 11]"] ;
32 -> 33 ;
34 [label="Age <= 28.5\ngini = 0.393\nsamples = 26\nvalue = [19, 7]"] ;
33 -> 34 ;
35 [label="gini = 0.5\nsamples = 4\nvalue = [2, 2]"] ;
34 -> 35 ;
36 [label="Age <= 29.35\ngini = 0.351\nsamples = 22\nvalue = [17, 5]"] ;
34 -> 36 ;
37 [label="gini = 0.0\nsamples = 1\nvalue = [1, 0]"] ;
36 -> 37 ;
38 [label="Age <= 32.0\ngini = 0.363\nsamples = 21\nvalue = [16, 5]"] ;
36 -> 38 ;
39 [label="Age <= 30.5\ngini = 0.375\nsamples = 20\nvalue = [15, 5]"] ;
38 -> 39 ;
40 [label="Age <= 29.85\ngini = 0.36\nsamples = 17\nvalue = [13, 4]"] ;
39 -> 40 ;
41 [label="gini = 0.375\nsamples = 16\nvalue = [12, 4]"] ;
40 -> 41 ;
42 [label="gini = 0.0\nsamples = 1\nvalue = [1, 0]"] ;
40 -> 42 ;
43 [label="gini = 0.444\nsamples = 3\nvalue = [2, 1]"] ;
39 -> 43 ;
44 [label="gini = 0.0\nsamples = 1\nvalue = [1, 0]"] ;
38 -> 44 ;
45 [label="Age <= 35.5\ngini = 0.444\nsamples = 6\nvalue = [2, 4]"] ;
33 -> 45 ;
46 [label="gini = 0.0\nsamples = 2\nvalue = [0, 2]"] ;
45 -> 46 ;
47 [label="gini = 0.5\nsamples = 4\nvalue = [2, 2]"] ;
45 -> 47 ;
48 [label="Age <= 41.0\ngini = 0.255\nsamples = 20\nvalue = [17, 3]"] ;
32 -> 48 ;
49 [label="gini = 0.0\nsamples = 7\nvalue = [7, 0]"] ;
48 -> 49 ;
50 [label="Age <= 43.0\ngini = 0.355\nsamples = 13\nvalue = [10, 3]"] ;
48 -> 50 ;
51 [label="gini = 0.444\nsamples = 3\nvalue = [1, 2]"] ;
50 -> 51 ;
52 [label="Age <= 45.25\ngini = 0.18\nsamples = 10\nvalue = [9, 1]"] ;
50 -> 52 ;
53 [label="Age <= 44.5\ngini = 0.32\nsamples = 5\nvalue = [4, 1]"] ;
52 -> 53 ;
54 [label="gini = 0.0\nsamples = 1\nvalue = [1, 0]"] ;
53 -> 54 ;
55 [label="gini = 0.375\nsamples = 4\nvalue = [3, 1]"] ;
53 -> 55 ;
56 [label="gini = 0.0\nsamples = 5\nvalue = [5, 0]"] ;
52 -> 56 ;
57 [label="gini = 0.0\nsamples = 6\nvalue = [0, 6]"] ;
25 -> 57 ;
58 [label="Age <= 75.5\ngini = 0.188\nsamples = 19\nvalue = [17, 2]"] ;
24 -> 58 ;
59 [label="Age <= 60.5\ngini = 0.105\nsamples = 18\nvalue = [17, 1]"] ;
58 -> 59 ;
60 [label="Age <= 59.0\ngini = 0.245\nsamples = 7\nvalue = [6, 1]"] ;
59 -> 60 ;
61 [label="gini = 0.0\nsamples = 5\nvalue = [5, 0]"] ;
60 -> 61 ;
62 [label="gini = 0.5\nsamples = 2\nvalue = [1, 1]"] ;
60 -> 62 ;
63 [label="gini = 0.0\nsamples = 11\nvalue = [11, 0]"] ;
59 -> 63 ;
64 [label="gini = 0.0\nsamples = 1\nvalue = [0, 1]"] ;
58 -> 64 ;
65 [label="Age <= 32.25\ngini = 0.182\nsamples = 316\nvalue = [284, 32]"] ;
23 -> 65 ;
66 [label="Age <= 31.5\ngini = 0.202\nsamples = 237\nvalue = [210, 27]"] ;
65 -> 66 ;
67 [label="Age <= 25.5\ngini = 0.181\nsamples = 228\nvalue = [205, 23]"] ;
66 -> 67 ;
68 [label="Age <= 22.5\ngini = 0.131\nsamples = 99\nvalue = [92, 7]"] ;
67 -> 68 ;
69 [label="Age <= 18.5\ngini = 0.173\nsamples = 73\nvalue = [66, 7]"] ;
68 -> 69 ;
70 [label="Age <= 16.5\ngini = 0.077\nsamples = 25\nvalue = [24, 1]"] ;
69 -> 70 ;
71 [label="Age <= 15.5\ngini = 0.153\nsamples = 12\nvalue = [11, 1]"] ;
70 -> 71 ;
72 [label="gini = 0.0\nsamples = 2\nvalue = [2, 0]"] ;
71 -> 72 ;
73 [label="Pclass <= 2.5\ngini = 0.18\nsamples = 10\nvalue = [9, 1]"] ;
71 -> 73 ;
74 [label="gini = 0.0\nsamples = 2\nvalue = [2, 0]"] ;
73 -> 74 ;
75 [label="gini = 0.219\nsamples = 8\nvalue = [7, 1]"] ;
73 -> 75 ;
76 [label="gini = 0.0\nsamples = 13\nvalue = [13, 0]"] ;
70 -> 76 ;
77 [label="Age <= 20.25\ngini = 0.219\nsamples = 48\nvalue = [42, 6]"] ;
69 -> 77 ;
78 [label="Age <= 19.5\ngini = 0.298\nsamples = 22\nvalue = [18, 4]"] ;
77 -> 78 ;
79 [label="Pclass <= 2.5\ngini = 0.245\nsamples = 14\nvalue = [12, 2]"] ;
78 -> 79 ;
80 [label="gini = 0.375\nsamples = 4\nvalue = [3, 1]"] ;
79 -> 80 ;
81 [label="gini = 0.18\nsamples = 10\nvalue = [9, 1]"] ;
79 -> 81 ;
82 [label="gini = 0.375\nsamples = 8\nvalue = [6, 2]"] ;
78 -> 82 ;
83 [label="Pclass <= 2.5\ngini = 0.142\nsamples = 26\nvalue = [24, 2]"] ;
77 -> 83 ;
84 [label="gini = 0.0\nsamples = 3\nvalue = [3, 0]"] ;
83 -> 84 ;
85 [label="Age <= 21.5\ngini = 0.159\nsamples = 23\nvalue = [21, 2]"] ;
83 -> 85 ;
86 [label="Age <= 20.75\ngini = 0.198\nsamples = 9\nvalue = [8, 1]"] ;
85 -> 86 ;
87 [label="gini = 0.0\nsamples = 1\nvalue = [1, 0]"] ;
86 -> 87 ;
88 [label="gini = 0.219\nsamples = 8\nvalue = [7, 1]"] ;
86 -> 88 ;
89 [label="gini = 0.133\nsamples = 14\nvalue = [13, 1]"] ;
85 -> 89 ;
90 [label="gini = 0.0\nsamples = 26\nvalue = [26, 0]"] ;
68 -> 90 ;
91 [label="Age <= 27.5\ngini = 0.217\nsamples = 129\nvalue = [113, 16]"] ;
67 -> 91 ;
92 [label="Pclass <= 2.5\ngini = 0.36\nsamples = 17\nvalue = [13, 4]"] ;
91 -> 92 ;
93 [label="gini = 0.0\nsamples = 4\nvalue = [4, 0]"] ;
92 -> 93 ;
94 [label="Age <= 26.5\ngini = 0.426\nsamples = 13\nvalue = [9, 4]"] ;
92 -> 94 ;
95 [label="gini = 0.346\nsamples = 9\nvalue = [7, 2]"] ;
94 -> 95 ;
96 [label="gini = 0.5\nsamples = 4\nvalue = [2, 2]"] ;
94 -> 96 ;
97 [label="Age <= 28.75\ngini = 0.191\nsamples = 112\nvalue = [100, 12]"] ;
91 -> 97 ;
98 [label="gini = 0.0\nsamples = 14\nvalue = [14, 0]"] ;
97 -> 98 ;
99 [label="Age <= 29.35\ngini = 0.215\nsamples = 98\nvalue = [86, 12]"] ;
97 -> 99 ;
100 [label="gini = 0.444\nsamples = 6\nvalue = [4, 2]"] ;
99 -> 100 ;
101 [label="Pclass <= 2.5\ngini = 0.194\nsamples = 92\nvalue = [82, 10]"] ;
99 -> 101 ;
102 [label="Age <= 30.5\ngini = 0.355\nsamples = 13\nvalue = [10, 3]"] ;
101 -> 102 ;
103 [label="Age <= 29.85\ngini = 0.32\nsamples = 10\nvalue = [8, 2]"] ;
102 -> 103 ;
104 [label="gini = 0.375\nsamples = 8\nvalue = [6, 2]"] ;
103 -> 104 ;
105 [label="gini = 0.0\nsamples = 2\nvalue = [2, 0]"] ;
103 -> 105 ;
106 [label="gini = 0.444\nsamples = 3\nvalue = [2, 1]"] ;
102 -> 106 ;
107 [label="Age <= 29.85\ngini = 0.162\nsamples = 79\nvalue = [72, 7]"] ;
101 -> 107 ;
108 [label="gini = 0.155\nsamples = 71\nvalue = [65, 6]"] ;
107 -> 108 ;
109 [label="Age <= 30.5\ngini = 0.219\nsamples = 8\nvalue = [7, 1]"] ;
107 -> 109 ;
110 [label="gini = 0.245\nsamples = 7\nvalue = [6, 1]"] ;
109 -> 110 ;
111 [label="gini = 0.0\nsamples = 1\nvalue = [1, 0]"] ;
109 -> 111 ;
112 [label="Pclass <= 2.5\ngini = 0.494\nsamples = 9\nvalue = [5, 4]"] ;
66 -> 112 ;
113 [label="gini = 0.0\nsamples = 2\nvalue = [2, 0]"] ;
112 -> 113 ;
114 [label="gini = 0.49\nsamples = 7\nvalue = [3, 4]"] ;
112 -> 114 ;
115 [label="Age <= 41.5\ngini = 0.119\nsamples = 79\nvalue = [74, 5]"] ;
65 -> 115 ;
116 [label="Age <= 34.5\ngini = 0.046\nsamples = 42\nvalue = [41, 1]"] ;
115 -> 116 ;
117 [label="Pclass <= 2.5\ngini = 0.142\nsamples = 13\nvalue = [12, 1]"] ;
116 -> 117 ;
118 [label="Age <= 33.25\ngini = 0.278\nsamples = 6\nvalue = [5, 1]"] ;
117 -> 118 ;
119 [label="gini = 0.0\nsamples = 1\nvalue = [1, 0]"] ;
118 -> 119 ;
120 [label="gini = 0.32\nsamples = 5\nvalue = [4, 1]"] ;
118 -> 120 ;
121 [label="gini = 0.0\nsamples = 7\nvalue = [7, 0]"] ;
117 -> 121 ;
122 [label="gini = 0.0\nsamples = 29\nvalue = [29, 0]"] ;
116 -> 122 ;
123 [label="Age <= 45.25\ngini = 0.193\nsamples = 37\nvalue = [33, 4]"] ;
115 -> 123 ;
124 [label="Age <= 44.5\ngini = 0.32\nsamples = 15\nvalue = [12, 3]"] ;
123 -> 124 ;
125 [label="Pclass <= 2.5\ngini = 0.26\nsamples = 13\nvalue = [11, 2]"] ;
124 -> 125 ;
126 [label="Age <= 43.0\ngini = 0.375\nsamples = 4\nvalue = [3, 1]"] ;
125 -> 126 ;
127 [label="gini = 0.444\nsamples = 3\nvalue = [2, 1]"] ;
126 -> 127 ;
128 [label="gini = 0.0\nsamples = 1\nvalue = [1, 0]"] ;
126 -> 128 ;
129 [label="Age <= 43.5\ngini = 0.198\nsamples = 9\nvalue = [8, 1]"] ;
125 -> 129 ;
130 [label="gini = 0.0\nsamples = 5\nvalue = [5, 0]"] ;
129 -> 130 ;
131 [label="gini = 0.375\nsamples = 4\nvalue = [3, 1]"] ;
129 -> 131 ;
132 [label="gini = 0.5\nsamples = 2\nvalue = [1, 1]"] ;
124 -> 132 ;
133 [label="Age <= 61.5\ngini = 0.087\nsamples = 22\nvalue = [21, 1]"] ;
123 -> 133 ;
134 [label="gini = 0.0\nsamples = 16\nvalue = [16, 0]"] ;
133 -> 134 ;
135 [label="Age <= 63.5\ngini = 0.278\nsamples = 6\nvalue = [5, 1]"] ;
133 -> 135 ;
136 [label="gini = 0.0\nsamples = 1\nvalue = [0, 1]"] ;
135 -> 136 ;
137 [label="gini = 0.0\nsamples = 5\nvalue = [5, 0]"] ;
135 -> 137 ;
138 [label="Pclass <= 2.5\ngini = 0.375\nsamples = 232\nvalue = [58, 174]"] ;
0 -> 138 [labeldistance=2.5, labelangle=-45, headlabel="False"] ;
139 [label="Age <= 3.0\ngini = 0.094\nsamples = 121\nvalue = [6, 115]"] ;
138 -> 139 ;
140 [label="Pclass <= 1.5\ngini = 0.5\nsamples = 2\nvalue = [1, 1]"] ;
139 -> 140 ;
141 [label="gini = 0.0\nsamples = 1\nvalue = [1, 0]"] ;
140 -> 141 ;
142 [label="gini = 0.0\nsamples = 1\nvalue = [0, 1]"] ;
140 -> 142 ;
143 [label="Age <= 27.5\ngini = 0.081\nsamples = 119\nvalue = [5, 114]"] ;
139 -> 143 ;
144 [label="Age <= 24.5\ngini = 0.172\nsamples = 42\nvalue = [4, 38]"] ;
143 -> 144 ;
145 [label="Age <= 23.5\ngini = 0.057\nsamples = 34\nvalue = [1, 33]"] ;
144 -> 145 ;
146 [label="gini = 0.0\nsamples = 28\nvalue = [0, 28]"] ;
145 -> 146 ;
147 [label="Pclass <= 1.5\ngini = 0.278\nsamples = 6\nvalue = [1, 5]"] ;
145 -> 147 ;
148 [label="gini = 0.0\nsamples = 2\nvalue = [0, 2]"] ;
147 -> 148 ;
149 [label="gini = 0.375\nsamples = 4\nvalue = [1, 3]"] ;
147 -> 149 ;
150 [label="Pclass <= 1.5\ngini = 0.469\nsamples = 8\nvalue = [3, 5]"] ;
144 -> 150 ;
151 [label="Age <= 25.5\ngini = 0.5\nsamples = 2\nvalue = [1, 1]"] ;
150 -> 151 ;
152 [label="gini = 0.0\nsamples = 1\nvalue = [1, 0]"] ;
151 -> 152 ;
153 [label="gini = 0.0\nsamples = 1\nvalue = [0, 1]"] ;
151 -> 153 ;
154 [label="Age <= 25.5\ngini = 0.444\nsamples = 6\nvalue = [2, 4]"] ;
150 -> 154 ;
155 [label="gini = 0.0\nsamples = 2\nvalue = [0, 2]"] ;
154 -> 155 ;
156 [label="Age <= 26.5\ngini = 0.5\nsamples = 4\nvalue = [2, 2]"] ;
154 -> 156 ;
157 [label="gini = 0.0\nsamples = 1\nvalue = [1, 0]"] ;
156 -> 157 ;
158 [label="gini = 0.444\nsamples = 3\nvalue = [1, 2]"] ;
156 -> 158 ;
159 [label="Age <= 56.5\ngini = 0.026\nsamples = 77\nvalue = [1, 76]"] ;
143 -> 159 ;
160 [label="gini = 0.0\nsamples = 71\nvalue = [0, 71]"] ;
159 -> 160 ;
161 [label="Age <= 57.5\ngini = 0.278\nsamples = 6\nvalue = [1, 5]"] ;
159 -> 161 ;
162 [label="gini = 0.0\nsamples = 1\nvalue = [1, 0]"] ;
161 -> 162 ;
163 [label="gini = 0.0\nsamples = 5\nvalue = [0, 5]"] ;
161 -> 163 ;
164 [label="Age <= 38.5\ngini = 0.498\nsamples = 111\nvalue = [52, 59]"] ;
138 -> 164 ;
165 [label="Age <= 5.5\ngini = 0.491\nsamples = 104\nvalue = [45, 59]"] ;
164 -> 165 ;
166 [label="Age <= 3.5\ngini = 0.278\nsamples = 12\nvalue = [2, 10]"] ;
165 -> 166 ;
167 [label="Age <= 1.5\ngini = 0.408\nsamples = 7\nvalue = [2, 5]"] ;
166 -> 167 ;
168 [label="gini = 0.0\nsamples = 4\nvalue = [0, 4]"] ;
167 -> 168 ;
169 [label="Age <= 2.5\ngini = 0.444\nsamples = 3\nvalue = [2, 1]"] ;
167 -> 169 ;
170 [label="gini = 0.5\nsamples = 2\nvalue = [1, 1]"] ;
169 -> 170 ;
171 [label="gini = 0.0\nsamples = 1\nvalue = [1, 0]"] ;
169 -> 171 ;
172 [label="gini = 0.0\nsamples = 5\nvalue = [0, 5]"] ;
166 -> 172 ;
173 [label="Age <= 12.0\ngini = 0.498\nsamples = 92\nvalue = [43, 49]"] ;
165 -> 173 ;
174 [label="gini = 0.0\nsamples = 7\nvalue = [7, 0]"] ;
173 -> 174 ;
175 [label="Age <= 32.5\ngini = 0.488\nsamples = 85\nvalue = [36.0, 49.0]"] ;
173 -> 175 ;
176 [label="Age <= 30.5\ngini = 0.494\nsamples = 81\nvalue = [36, 45]"] ;
175 -> 176 ;
177 [label="Age <= 13.5\ngini = 0.49\nsamples = 77\nvalue = [33, 44]"] ;
176 -> 177 ;
178 [label="gini = 0.0\nsamples = 1\nvalue = [0, 1]"] ;
177 -> 178 ;
179 [label="Age <= 14.75\ngini = 0.491\nsamples = 76\nvalue = [33, 43]"] ;
177 -> 179 ;
180 [label="Age <= 14.25\ngini = 0.444\nsamples = 3\nvalue = [2, 1]"] ;
179 -> 180 ;
181 [label="gini = 0.5\nsamples = 2\nvalue = [1, 1]"] ;
180 -> 181 ;
182 [label="gini = 0.0\nsamples = 1\nvalue = [1, 0]"] ;
180 -> 182 ;
183 [label="Age <= 15.5\ngini = 0.489\nsamples = 73\nvalue = [31, 42]"] ;
179 -> 183 ;
184 [label="gini = 0.0\nsamples = 2\nvalue = [0, 2]"] ;
183 -> 184 ;
185 [label="Age <= 21.5\ngini = 0.492\nsamples = 71\nvalue = [31.0, 40.0]"] ;
183 -> 185 ;
186 [label="Age <= 19.5\ngini = 0.499\nsamples = 19\nvalue = [10, 9]"] ;
185 -> 186 ;
187 [label="Age <= 18.5\ngini = 0.49\nsamples = 14\nvalue = [6, 8]"] ;
186 -> 187 ;
188 [label="Age <= 16.5\ngini = 0.5\nsamples = 12\nvalue = [6, 6]"] ;
187 -> 188 ;
189 [label="gini = 0.444\nsamples = 3\nvalue = [1, 2]"] ;
188 -> 189 ;
190 [label="Age <= 17.5\ngini = 0.494\nsamples = 9\nvalue = [5, 4]"] ;
188 -> 190 ;
191 [label="gini = 0.5\nsamples = 2\nvalue = [1, 1]"] ;
190 -> 191 ;
192 [label="gini = 0.49\nsamples = 7\nvalue = [4, 3]"] ;
190 -> 192 ;
193 [label="gini = 0.0\nsamples = 2\nvalue = [0, 2]"] ;
187 -> 193 ;
194 [label="Age <= 20.5\ngini = 0.32\nsamples = 5\nvalue = [4, 1]"] ;
186 -> 194 ;
195 [label="gini = 0.0\nsamples = 2\nvalue = [2, 0]"] ;
194 -> 195 ;
196 [label="gini = 0.444\nsamples = 3\nvalue = [2, 1]"] ;
194 -> 196 ;
197 [label="Age <= 23.5\ngini = 0.482\nsamples = 52\nvalue = [21, 31]"] ;
185 -> 197 ;
198 [label="Age <= 22.5\ngini = 0.278\nsamples = 6\nvalue = [1, 5]"] ;
197 -> 198 ;
199 [label="gini = 0.32\nsamples = 5\nvalue = [1, 4]"] ;
198 -> 199 ;
200 [label="gini = 0.0\nsamples = 1\nvalue = [0, 1]"] ;
198 -> 200 ;
201 [label="Age <= 25.5\ngini = 0.491\nsamples = 46\nvalue = [20.0, 26.0]"] ;
197 -> 201 ;
202 [label="Age <= 24.5\ngini = 0.375\nsamples = 4\nvalue = [3, 1]"] ;
201 -> 202 ;
203 [label="gini = 0.5\nsamples = 2\nvalue = [1, 1]"] ;
202 -> 203 ;
204 [label="gini = 0.0\nsamples = 2\nvalue = [2, 0]"] ;
202 -> 204 ;
205 [label="Age <= 27.5\ngini = 0.482\nsamples = 42\nvalue = [17, 25]"] ;
201 -> 205 ;
206 [label="Age <= 26.5\ngini = 0.32\nsamples = 5\nvalue = [1, 4]"] ;
205 -> 206 ;
207 [label="gini = 0.444\nsamples = 3\nvalue = [1, 2]"] ;
206 -> 207 ;
208 [label="gini = 0.0\nsamples = 2\nvalue = [0, 2]"] ;
206 -> 208 ;
209 [label="Age <= 29.35\ngini = 0.491\nsamples = 37\nvalue = [16, 21]"] ;
205 -> 209 ;
210 [label="gini = 0.0\nsamples = 3\nvalue = [3, 0]"] ;
209 -> 210 ;
211 [label="Age <= 29.85\ngini = 0.472\nsamples = 34\nvalue = [13, 21]"] ;
209 -> 211 ;
212 [label="gini = 0.469\nsamples = 32\nvalue = [12, 20]"] ;
211 -> 212 ;
213 [label="gini = 0.5\nsamples = 2\nvalue = [1, 1]"] ;
211 -> 213 ;
214 [label="Age <= 31.5\ngini = 0.375\nsamples = 4\nvalue = [3, 1]"] ;
176 -> 214 ;
215 [label="gini = 0.444\nsamples = 3\nvalue = [2, 1]"] ;
214 -> 215 ;
216 [label="gini = 0.0\nsamples = 1\nvalue = [1, 0]"] ;
214 -> 216 ;
217 [label="gini = 0.0\nsamples = 4\nvalue = [0, 4]"] ;
175 -> 217 ;
218 [label="gini = 0.0\nsamples = 7\nvalue = [7, 0]"] ;
164 -> 218 ;
}